svm_type c_svc
kernel_type sigmoid
gamma 2.6
coef0 0
nr_class 2
total_sv 20
rho -5.24911
label 1 -1
nr_sv 10 10
SV
4.5 0:0.0068185726 1:0.061143345 2:0.20868827 
4.5 0:0.11949253 1:0.0059469453 2:0.16610116 
4.5 0:0.062090025 1:0.017225905 2:0.16598337 
4.5 0:0.023708033 1:0.0053047679 2:0.25494022 
4.5 0:0.06915316 1:0.0076412003 2:0.25721655 
4.5 0:0.18464179 1:0.0015510798 2:0.15988177 
4.5 0:0.034510319 1:0.0050267539 2:0.19793523 
3.058237170862629 0:0.02145527 1:0.015394205 2:0.1832724 
4.5 0:0.032774589 1:0.0011466023 2:0.19991139 
4.5 0:0.11458213 1:0.0048788706 2:0.12721753 
-4.5 0:0.13237539 1:0.10094105 2:0.063738258 
-3.058237170862629 0:0.32579047 1:0.0073223496 2:0.09742236 
-4.5 0:0.41168449 1:0.018743865 2:0.84572497 
-4.5 0:0.16309887 1:0.11287463 2:1.0908969 
-4.5 0:0.12725368 1:0.0014588938 2:0.079446537 
-4.5 0:0.14535878 1:0.10190513 2:0.73356314 
-4.5 0:0.23051347 1:0.0017484398 2:0.066890828 
-4.5 0:0.035301181 1:0.0036546245 2:0.8119847 
-4.5 0:0.14399469 1:0.0075173015 2:0.071612199 
-4.5 0:0.19025668 1:0.01359174 2:0.070049943 
